-1.984266 0.074188 2.292242 0.551311 -0.766744 0.602432 -0.218334 -0.479526 -1.241277 -0.024536 1.385668 -2.345517 
-2.457691 0.473809 1.707094 -0.617567 0.968783 1.099316 0.127159 0.567289 0.831601 -0.340860 0.102924 -0.996311 
1.364825 -1.068946 1.174171 1.332803 -2.479708 -0.909123 0.811178 1.217877 -1.940429 -0.564864 0.529204 1.833220 
-0.209827 -1.008572 1.078387 0.457610 0.400248 0.871962 -1.055289 0.208077 -0.682285 0.706729 0.232292 1.245366 
-1.055594 0.417722 -0.674416 0.776707 -0.060751 -0.004135 0.693040 -0.370502 -0.063095 0.734029 -0.773599 -0.638735 
0.886776 0.554377 -0.276341 0.217109 -1.629570 0.542094 0.766433 -0.449179 -0.744833 -0.502263 -0.866262 2.248792 
1.298866 0.658268 -1.301086 -2.155189 -0.123634 -0.812250 -0.807505 -0.396256 0.053260 0.879792 -0.049684 0.406042 
0.134532 -0.748139 -1.197167 -0.992921 0.121376 -0.661281 -0.973181 0.948387 0.790465 0.939843 -0.283014 -0.150322 
1.794220 -0.424068 1.351126 0.326659 -1.116997 1.043981 -0.922001 -0.593486 -1.278984 -0.451323 -0.042780 0.213080 
-1.812487 -0.074458 -1.979115 0.136968 0.762650 -1.023314 0.471471 0.854647 0.758559 -1.120581 -0.789041 0.028988 
